digraph Tree {
node [shape=box] ;
0 [label="X[9] <= 3.82\ngini = 0.656\nsamples = 89\nvalue = [46, 53, 34]"] ;
1 [label="X[7] <= 0.275\ngini = 0.043\nsamples = 32\nvalue = [1, 45, 0]"] ;
0 -> 1 [labeldistance=2.5, labelangle=45, headlabel="True"] ;
2 [label="X[6] <= 2.57\ngini = 0.198\nsamples = 6\nvalue = [1, 8, 0]"] ;
1 -> 2 ;
3 [label="gini = 0.0\nsamples = 4\nvalue = [0, 7, 0]"] ;
2 -> 3 ;
4 [label="gini = 0.5\nsamples = 2\nvalue = [1, 1, 0]"] ;
2 -> 4 ;
5 [label="gini = 0.0\nsamples = 26\nvalue = [0, 37, 0]"] ;
1 -> 5 ;
6 [label="X[5] <= 2.35\ngini = 0.571\nsamples = 57\nvalue = [45, 8, 34]"] ;
0 -> 6 [labeldistance=2.5, labelangle=-45, headlabel="False"] ;
7 [label="X[5] <= 2.125\ngini = 0.193\nsamples = 28\nvalue = [1, 3, 34]"] ;
6 -> 7 ;
8 [label="gini = 0.059\nsamples = 24\nvalue = [0, 1, 32]"] ;
7 -> 8 ;
9 [label="gini = 0.64\nsamples = 4\nvalue = [1, 2, 2]"] ;
7 -> 9 ;
10 [label="X[0] <= 12.61\ngini = 0.183\nsamples = 29\nvalue = [44, 5, 0]"] ;
6 -> 10 ;
11 [label="gini = 0.0\nsamples = 2\nvalue = [0, 5, 0]"] ;
10 -> 11 ;
12 [label="gini = 0.0\nsamples = 27\nvalue = [44, 0, 0]"] ;
10 -> 12 ;
}