digraph Tree {
node [shape=box, style="filled, rounded", color="black", fontname=helvetica] ;
edge [fontname=helvetica] ;
0 [label="color_intensity <= 3.82\ngini = 0.66\nsamples = 119\nvalue = [39, 47, 33]\nclass = class_1", fillcolor="#ebfcf2"] ;
1 [label="proline <= 1010.0\ngini = 0.09\nsamples = 43\nvalue = [2, 41, 0]\nclass = class_1", fillcolor="#43e687"] ;
0 -> 1 [labeldistance=2.5, labelangle=45, headlabel="True"] ;
2 [label="gini = 0.05\nsamples = 42\nvalue = [1, 41, 0]\nclass = class_1", fillcolor="#3ee684"] ;
1 -> 2 ;
3 [label="gini = 0.0\nsamples = 1\nvalue = [1, 0, 0]\nclass = class_0", fillcolor="#e58139"] ;
1 -> 3 ;
4 [label="flavanoids <= 1.4\ngini = 0.57\nsamples = 76\nvalue = [37, 6, 33]\nclass = class_0", fillcolor="#fdf3ed"] ;
0 -> 4 [labeldistance=2.5, labelangle=-45, headlabel="False"] ;
5 [label="gini = 0.0\nsamples = 33\nvalue = [0, 0, 33]\nclass = class_2", fillcolor="#8139e5"] ;
4 -> 5 ;
6 [label="gini = 0.24\nsamples = 43\nvalue = [37, 6, 0]\nclass = class_0", fillcolor="#e99559"] ;
4 -> 6 ;
}